<?xml version="1.0" encoding="ISO-8859-1"?>
<!-- This network was created in GeNIe Academic, which can be used for educational and research purposes only -->
<smile version="1.0" id="Network1" numsamples="10000" discsamples="10000">
	<nodes>
		<cpt id="winds">
			<state id="Low" />
			<state id="High" />
			<probabilities>0.5848903316308374 0.4151096683691627</probabilities>
		</cpt>
		<cpt id="AT">
			<state id="Low" />
			<state id="High" />
			<probabilities>0.5337618274185878 0.4662381725814121</probabilities>
		</cpt>
		<cpt id="precip">
			<state id="Low" />
			<state id="High" />
			<probabilities>0.6264111525231707 0.3735888474768292</probabilities>
		</cpt>
		<cpt id="recParticip">
			<state id="Low" />
			<state id="High" />
			<parents>winds AT precip</parents>
			<probabilities>0.6171281066274544 0.3828718933725455 0.2876719336110905 0.7123280663889094 0.7648898363926095 0.2351101636073904 0.387555728247041 0.6124442717529589 0.7032008861543821 0.2967991138456179 0.5267823861156524 0.4732176138843475 0.4583926078744791 0.5416073921255209 0.3254054407311395 0.6745945592688604</probabilities>
		</cpt>
		<cpt id="commSF">
			<state id="Below_MSY" />
			<state id="Above_MSY" />
			<parents>winds</parents>
			<probabilities>0.1571428571428571 0.8428571428571429 0.2727396234726546 0.7272603765273453</probabilities>
		</cpt>
		<cpt id="commGF">
			<state id="Below_MSY" />
			<state id="Above_MSY" />
			<parents>winds</parents>
			<probabilities>0.07142857142857142 0.9285714285714286 0.3919087683782761 0.6080912316217238</probabilities>
		</cpt>
		<cpt id="commPel">
			<state id="Below_MSY" />
			<state id="Above_MSY" />
			<parents>winds</parents>
			<probabilities>0.4428571428571428 0.5571428571428572 0.3119599132443499 0.68804008675565</probabilities>
		</cpt>
		<cpt id="profits">
			<state id="Low" />
			<state id="High" />
			<parents>recParticip commSF commGF commPel</parents>
			<probabilities>0.5 0.5 0.5 0.5 0.5 0.5 0.7499999999999999 0.25 0.5 0.5 0.5 0.5 0.8196605764388205 0.1803394235611794 0.873741874013379 0.126258125986621 0.5 0.5 0.75 0.25 0.5 0.5 0.25 0.7499999999999999 0.5 0.5 0.1250000000000824 0.8749999999999175 0.5 0.5 0.3571473795590177 0.6428526204409823</probabilities>
		</cpt>
		<cpt id="employment">
			<state id="Low" />
			<state id="High" />
			<parents>recParticip commSF commGF commPel</parents>
			<probabilities>0.5 0.5 0.5 0.5 0.5 0.5 0.25 0.7499999999999999 0.5 0.5 0.5 0.5 0.4999999999999999 0.4999999999999999 0.4999999999999999 0.4999999999999999 0.5 0.5 0.5 0.5 0.5 0.5 0.5 0.5 0.5 0.5 0.3750000000000275 0.6249999999999726 0.5 0.5 0.5 0.5</probabilities>
		</cpt>
		<cpt id="seafood">
			<state id="Low" />
			<state id="High" />
			<parents>recParticip commSF commGF</parents>
			<probabilities>0.7656350946118462 0.2343649053881537 0.1824122229623306 0.8175877770376694 0.558289314179219 0.441710685820781 0.7991994705319656 0.2008005294680345 0.08493785000340458 0.9150621499965954 0.5187358165487951 0.4812641834512049 0.1297440869385294 0.8702559130614707 0.4943698919950926 0.5056301080049074</probabilities>
		</cpt>
		<cpt id="soccultvals">
			<state id="Better" />
			<state id="Unchanged" />
			<state id="Worse" />
			<parents>commGF recParticip</parents>
			<probabilities>0.2 0.333 0.467 0.3 0.533 0.167 0.267 0.5659999999999999 0.167 0.367 0.5669999999999999 0.066</probabilities>
		</cpt>
		<cpt id="pctLSW">
			<state id="Low" />
			<state id="High" />
			<probabilities>0.5110231083169314 0.4889768916830687</probabilities>
		</cpt>
		<cpt id="SSS">
			<state id="Low" />
			<state id="High" />
			<parents>AT pctLSW winds</parents>
			<probabilities>0.3705489532869077 0.6294510467130924 0.8407654208813038 0.1592345791186962 0.3425529960362449 0.6574470039637552 0.09710655794977475 0.9028934420502251 0.5558632813309321 0.444136718669068 0.1827275664711335 0.8172724335288666 0.3348486460977912 0.6651513539022087 0.7115236245836999 0.2884763754163002</probabilities>
		</cpt>
		<cpt id="SST">
			<state id="Low" />
			<state id="High" />
			<parents>AT pctLSW winds</parents>
			<probabilities>0.7891875691567171 0.210812430843283 0.8603932655450034 0.1396067344549966 0.6627346584110838 0.3372653415889162 0.4879052986064376 0.5120947013935624 0.5572917258386401 0.4427082741613599 0.1999416221787719 0.8000583778212281 0.11255433592685 0.8874456640731501 0.2432620478930041 0.7567379521069958</probabilities>
		</cpt>
		<cpt id="BS">
			<state id="Low" />
			<state id="High" />
			<parents>AT pctLSW winds</parents>
			<probabilities>0.5014908385665343 0.4985091614334657 0.8544701648221006 0.1455298351778995 0.3624420604532487 0.6375579395467513 0.09135257317242236 0.9086474268275776 0.3377137329686249 0.6622862670313751 0.2101548620897765 0.7898451379102236 0.3450550775891162 0.6549449224108838 0.7373063133426695 0.2626936866573306</probabilities>
		</cpt>
		<cpt id="BT">
			<state id="Low" />
			<state id="High" />
			<parents>AT pctLSW winds</parents>
			<probabilities>0.6450600642826042 0.3549399357173959 0.864931225796107 0.1350687742038929 0.7817902850711231 0.2182097149288768 0.4577786446812462 0.5422213553187537 0.6310937401216171 0.3689062598783828 0.1775068617188216 0.8224931382811783 0.4920972024243356 0.5079027975756644 0.2638630879287693 0.7361369120712309</probabilities>
		</cpt>
		<cpt id="tides">
			<state id="Min" />
			<state id="Intermediate" />
			<state id="Max" />
			<probabilities>0.1555555555555555 0.6722222222222222 0.1722222222222222</probabilities>
		</cpt>
		<cpt id="strat">
			<state id="Low" />
			<state id="High" />
			<parents>BS SST SSS tides</parents>
			<probabilities>0.2595966358497318 0.7404033641502681 0.8626319118084775 0.1373680881915224 0.8777529643702741 0.1222470356297258 0.7768190246080032 0.2231809753919969 0.4192223047605732 0.5807776952394268 0.4883498368768093 0.5116501631231907 0.2514803341410031 0.748519665858997 0.1076944889629977 0.8923055110370024 0.5150236614463637 0.4849763385536363 0.5618496332505307 0.4381503667494693 0.363646752328641 0.6363532476713591 0.4656136658690859 0.5343863341309142 0.5373773830510559 0.4626226169489441 0.503095291907333 0.496904708092667 0.5032351431528472 0.4967648568471528 0.7037805007453897 0.2962194992546103 0.2975344733702425 0.7024655266297575 0.4809506764179084 0.5190493235820918 0.505215174264303 0.4947848257356971 0.5075038966753084 0.4924961033246917 0.5229689695558128 0.4770310304441872 0.2899947382882284 0.7100052617117717 0.7146864426873356 0.2853135573126644 0.3160172414073332 0.6839827585926667</probabilities>
		</cpt>
		<cpt id="habPel">
			<state id="Low" />
			<state id="High" />
			<parents>SSS winds SST strat</parents>
			<probabilities>0.4422330568079648 0.5577669431920353 0.4970767610426194 0.5029232389573803 0.438221132777127 0.5617788672228728 0.6938316387838127 0.3061683612161873 0.1655038461464089 0.8344961538535912 0.2722288676922487 0.7277711323077513 0.5390115905779407 0.4609884094220593 0.117884671171707 0.882115328828293 0.8289657437070385 0.1710342562929615 0.4898282719040151 0.5101717280959849 0.8231130249844864 0.1768869750155136 0.4217048814423787 0.5782951185576214 0.6626295553539987 0.3373704446460012 0.6055758847327821 0.3944241152672179 0.61542481538577 0.38457518461423 0.8011674648204552 0.1988325351795448</probabilities>
		</cpt>
		<cpt id="habNear">
			<state id="Increasing" />
			<state id="Decreasing" />
			<parents>BT SSS strat BS SST</parents>
			<probabilities>0.158228 0.841772 0.5 0.5 0.5 0.5 0.4999999999999999 0.4999999999999999 0.2 0.8 0.5 0.5 0.4999999999999999 0.4999999999999999 0.5 0.5 0.4999999999999999 0.4999999999999999 0.5 0.5 0.5 0.5 0.4999999999999999 0.4999999999999999 0.5 0.5 0.5 0.5 0.192308 0.807692 0.25 0.75 0.5 0.5 0.5 0.5 0.5 0.5 0.5 0.5 0.5 0.5 0.195219 0.804781 0.5 0.5 0.5 0.5 0.5 0.5 0.5 0.5 0.166667 0.833333 0.203252 0.796748 0.5 0.5 0.4999999999999999 0.4999999999999999 0.25 0.75 0.211268 0.788732</probabilities>
		</cpt>
		<cpt id="PP">
			<state id="Low" />
			<state id="High" />
			<parents>habPel</parents>
			<probabilities>0.9117043409838814 0.08829565901611856 0.7277713168764041 0.2722286831235959</probabilities>
		</cpt>
		<cpt id="copepod">
			<state id="Low" />
			<state id="High" />
			<parents>PP</parents>
			<probabilities>0.6789697347705564 0.3210302652294436 0.3043123409215519 0.6956876590784481</probabilities>
		</cpt>
		<cpt id="habDem">
			<state id="Low" />
			<state id="High" />
			<parents>BT BS commSF commGF</parents>
			<probabilities>0.5048410276215048 0.4951589723784952 0.2496280271254703 0.7503719728745296 0.4968918057177248 0.5031081942822753 0.4469363268664703 0.5530636731335298 0.5084767530490509 0.4915232469509492 0.8027777462486471 0.1972222537513531 0.2503863756544878 0.7496136243455122 0.2357742628440064 0.7642257371559934 0.501673109860778 0.498326890139222 0.4953998961428592 0.5046001038571407 0.2478055572767187 0.7521944427232814 0.09479310182904684 0.9052068981709533 0.8818141266091333 0.1181858733908666 0.4891442604937095 0.5108557395062905 0.2527924968918863 0.7472075031081137 0.6448499067615681 0.3551500932384319</probabilities>
		</cpt>
		<cpt id="benthos">
			<state id="Low" />
			<state id="High" />
			<parents>PP</parents>
			<probabilities>0.528812181064617 0.4711878189353829 0.5151738226377833 0.4848261773622167</probabilities>
		</cpt>
		<cpt id="ground">
			<state id="Above_Bmsy" />
			<state id="Below_Bmsy" />
			<parents>habPel habNear habDem benthos commGF</parents>
			<probabilities>0.6771721995867722 0.3228278004132279 0.9107716741721573 0.08922832582784281 0.8171108546049328 0.1828891453950672 0.8540249290809335 0.1459750709190664 0.5177807229560553 0.4822192770439448 0.754734210184978 0.245265789815022 0.7071421909423196 0.2928578090576804 0.8146601390470728 0.1853398609529271 0.6771721995867722 0.3228278004132279 0.9107716741721573 0.08922832582784281 0.8171108546049328 0.1828891453950672 0.8540249290809335 0.1459750709190664 0.5177807229560553 0.4822192770439448 0.754734210184978 0.245265789815022 0.7071421909423196 0.2928578090576804 0.8146601390470728 0.1853398609529271 0.5075587414657559 0.4924412585342443 0.4206976764909648 0.5793023235090351 0.7108401229507376 0.2891598770492625 0.6583941188910173 0.3416058811089827 0.6795831343851314 0.3204168656148686 0.9256289259397025 0.07437107406029743 0.6882906996281596 0.3117093003718403 0.867891586750473 0.1321084132495269 0.5075587414657559 0.4924412585342443 0.4206976764909648 0.5793023235090351 0.7108401229507376 0.2891598770492625 0.6583941188910173 0.3416058811089827 0.6795831343851314 0.3204168656148686 0.9256289259397025 0.07437107406029743 0.6882906996281596 0.3117093003718403 0.867891586750473 0.1321084132495269</probabilities>
		</cpt>
		<cpt id="PS">
			<state id="Low" />
			<state id="High" />
			<parents>habPel habNear copepod ground commGF commPel</parents>
			<probabilities>0.674427050318673 0.3255729496813269 0.1510726067921112 0.8489273932078887 0.8749868386332935 0.1250131613667064 0.2762419027579641 0.7237580972420359 0.5 0.5 0.5 0.5 0.5 0.5 0.5 0.5 0.5 0.5 0.503073722573514 0.4969262774264862 0.5 0.5 0.6800201975887841 0.319979802411216 0.5 0.5 0.5 0.5 0.5 0.5 0.5 0.5 0.674427050318673 0.3255729496813269 0.1510726067921112 0.8489273932078887 0.8749868386332935 0.1250131613667064 0.2762419027579641 0.7237580972420359 0.5 0.5 0.5 0.5 0.5 0.5 0.5 0.5 0.5 0.5 0.503073722573514 0.4969262774264862 0.5 0.5 0.6800201975887841 0.319979802411216 0.5 0.5 0.5 0.5 0.5 0.5 0.5 0.5 0.5 0.5 0.4044335532895749 0.595566446710425 0.4999999999999999 0.4999999999999999 0.4683315047858747 0.5316684952141254 0.5 0.5 0.5 0.5 0.5 0.5 0.5 0.5 0.5020732611305466 0.4979267388694534 0.1984989406006678 0.8015010593993321 0.7680695149862035 0.2319304850137965 0.2205912765164312 0.7794087234835688 0.5 0.5 0.5 0.5 0.5 0.5 0.5 0.5 0.5 0.5 0.4044335532895749 0.595566446710425 0.4999999999999999 0.4999999999999999 0.4683315047858747 0.5316684952141254 0.5 0.5 0.5 0.5 0.5 0.5 0.5 0.5 0.5020732611305466 0.4979267388694534 0.1984989406006678 0.8015010593993321 0.7680695149862035 0.2319304850137965 0.2205912765164312 0.7794087234835688 0.5 0.5 0.5 0.5 0.5 0.5 0.5 0.5</probabilities>
		</cpt>
		<cpt id="detBac">
			<state id="Low" />
			<state id="High" />
			<probabilities>0.4150667573165304 0.5849332426834696</probabilities>
		</cpt>
		<cpt id="inverts">
			<state id="Above_Bmsy" />
			<state id="Below_Bmsy" />
			<parents>habNear habDem PP detBac benthos commSF ground</parents>
			<probabilities>0.3552737306095678 0.6447262693904322 0.4913397798823759 0.5086602201176241 0.1786365471963223 0.8213634528036777 0.4524488645491566 0.5475511354508434 0.4050342526550568 0.5949657473449432 0.4955191482578563 0.5044808517421439 0.380382022078365 0.619617977921635 0.4679458455093783 0.5320541544906218 0.3098922972804206 0.6901077027195793 0.4878152383157323 0.5121847616842677 0.1365646853186204 0.8634353146813796 0.4336823090876526 0.5663176909123473 0.4725525862229686 0.5274474137770313 0.4936936120805156 0.5063063879194843 0.2391596239080634 0.7608403760919364 0.4550690636336077 0.5449309363663922 0.4799258442421027 0.5200741557578974 0.4979666622152248 0.5020333377847752 0.4642001944642578 0.5357998055357422 0.4842301363939263 0.5157698636060736 0.4965910356270453 0.5034089643729547 0.4989165395907165 0.5010834604092834 0.4530462612947715 0.5469537387052286 0.4908372957959646 0.5091627042040354 0.471775582917499 0.528224417082501 0.4971378658469313 0.5028621341530688 0.4498089661658785 0.5501910338341215 0.4778158281150754 0.5221841718849246 0.495201976103769 0.5047980238962311 0.4984749872541035 0.5015250127458966 0.2962675664272144 0.7037324335727856 0.4871076135414183 0.5128923864585817 0.417332997838008 0.5826670021619921 0.4940994107874792 0.5059005892125209 0.1621059903530191 0.8378940096469808 0.4512071743522426 0.5487928256477574 0.5882855955825906 0.4117144044174095 0.4962256623337222 0.5037743376662778 0.1852850334473624 0.8147149665526376 0.4598461326808142 0.5401538673191857 0.3865931429346134 0.6134068570653867 0.4916963184368936 0.5083036815631063 0.09681359276175108 0.9031864072382489 0.4319747424069049 0.568025257593095 0.5115647990881257 0.4884352009118743 0.4946878152596202 0.5053121847403795 0.1329727246591619 0.8670272753408382 0.4438403208912001 0.5561596791087999 0.4848152652759226 0.5151847347240774 0.498944241839978 0.5010557581600219 0.3204462303429685 0.6795537696570314 0.492307972452971 0.5076920275470291 0.4977826331976231 0.5022173668023771 0.4991974371297395 0.5008025628702606 0.4402111850343322 0.5597888149656677 0.4918086085123281 0.5081913914876718 0.4786336851304723 0.5213663148695278 0.4985139329338525 0.5014860670661474 0.2068507579370276 0.7931492420629724 0.4891734398318646 0.5108265601681354 0.496879024782489 0.5031209752175111 0.4988703588186884 0.5011296411813115 0.2206455793222596 0.7793544206777404 0.4884735115308287 0.5115264884691713 0.3552737306095678 0.6447262693904322 0.4913397798823759 0.5086602201176241 0.1786365471963223 0.8213634528036777 0.4524488645491566 0.5475511354508434 0.4050342526550568 0.5949657473449432 0.4955191482578563 0.5044808517421439 0.380382022078365 0.619617977921635 0.4679458455093783 0.5320541544906218 0.3098922972804206 0.6901077027195793 0.4878152383157323 0.5121847616842677 0.1365646853186204 0.8634353146813796 0.4336823090876526 0.5663176909123473 0.4725525862229686 0.5274474137770313 0.4936936120805156 0.5063063879194843 0.2391596239080634 0.7608403760919364 0.4550690636336077 0.5449309363663922 0.4799258442421027 0.5200741557578974 0.4979666622152248 0.5020333377847752 0.4642001944642578 0.5357998055357422 0.4842301363939263 0.5157698636060736 0.4965910356270453 0.5034089643729547 0.4989165395907165 0.5010834604092834 0.4530462612947715 0.5469537387052286 0.4908372957959646 0.5091627042040354 0.471775582917499 0.528224417082501 0.4971378658469313 0.5028621341530688 0.4498089661658785 0.5501910338341215 0.4778158281150754 0.5221841718849246 0.495201976103769 0.5047980238962311 0.4984749872541035 0.5015250127458966 0.2962675664272144 0.7037324335727856 0.4871076135414183 0.5128923864585817 0.417332997838008 0.5826670021619921 0.4940994107874792 0.5059005892125209 0.1621059903530191 0.8378940096469808 0.4512071743522426 0.5487928256477574 0.5882855955825906 0.4117144044174095 0.4962256623337222 0.5037743376662778 0.1852850334473624 0.8147149665526376 0.4598461326808142 0.5401538673191857 0.3865931429346134 0.6134068570653867 0.4916963184368936 0.5083036815631063 0.09681359276175108 0.9031864072382489 0.4319747424069049 0.568025257593095 0.5115647990881257 0.4884352009118743 0.4946878152596202 0.5053121847403795 0.1329727246591619 0.8670272753408382 0.4438403208912001 0.5561596791087999 0.4848152652759226 0.5151847347240774 0.498944241839978 0.5010557581600219 0.3204462303429685 0.6795537696570314 0.492307972452971 0.5076920275470291 0.4977826331976231 0.5022173668023771 0.4991974371297395 0.5008025628702606 0.4402111850343322 0.5597888149656677 0.4918086085123281 0.5081913914876718 0.4786336851304723 0.5213663148695278 0.4985139329338525 0.5014860670661474 0.2068507579370276 0.7931492420629724 0.4891734398318646 0.5108265601681354 0.496879024782489 0.5031209752175111 0.4988703588186884 0.5011296411813115 0.2206455793222596 0.7793544206777404 0.4884735115308287 0.5115264884691713</probabilities>
		</cpt>
		<cpt id="GZ">
			<state id="Low" />
			<state id="High" />
			<probabilities>0.4093895765005043 0.5906104234994957</probabilities>
		</cpt>
		<cpt id="forage">
			<state id="Above_Bmsy" />
			<state id="Below_Bmsy" />
			<parents>habPel habNear habDem copepod ground GZ PS commPel</parents>
			<probabilities>0.8744834059023507 0.1255165940976492 0.5566251986331893 0.4433748013668109 0.5441960505174308 0.4558039494825692 0.6421072191657108 0.3578927808342892 0.6822107638097307 0.3177892361902694 0.5806168463304522 0.4193831536695479 0.5101438028973835 0.4898561971026166 0.8631781187564007 0.1368218812435993 0.5023710735440665 0.4976289264559336 0.5073860818922626 0.4926139181077374 0.5023710735440665 0.4976289264559336 0.5073860818922626 0.4926139181077374 0.5034206140080738 0.4965793859919262 0.5106532969342925 0.4893467030657074 0.5034206140080738 0.4965793859919262 0.5106532969342925 0.4893467030657074 0.7163259327022681 0.2836740672977319 0.5667047311488373 0.4332952688511625 0.7163259327022681 0.2836740672977319 0.532544999709916 0.4674550002900841 0.5063360940536955 0.4936639059463047 0.7194056791761176 0.2805943208238824 0.5063360940536955 0.4936639059463047 0.6933979503506824 0.3066020496493177 0.5012954784974852 0.4987045215025148 0.5040137387440425 0.4959862612559576 0.5012954784974852 0.4987045215025148 0.5040137387440425 0.4959862612559576 0.501868946017313 0.498131053982687 0.5057901278426803 0.4942098721573197 0.501868946017313 0.498131053982687 0.5057901278426803 0.4942098721573197 0.7482091451932675 0.2517908548067323 0.5533145222718386 0.4466854777281614 0.5252699416026312 0.4747300583973687 0.6373158588138921 0.362684141186108 0.5151010578031321 0.484898942196868 0.5760172881726756 0.4239827118273246 0.5052529192339135 0.4947470807660865 0.7901495107962193 0.2098504892037807 0.5022816436066011 0.4977183563933989 0.5237389714650151 0.476261028534985 0.5022816436066011 0.4977183563933989 0.5237389714650151 0.476261028534985 0.5032916074425184 0.4967083925574816 0.5341646435475651 0.465835356452435 0.5032916074425184 0.4967083925574816 0.5341646435475651 0.465835356452435 0.5019822842296144 0.4980177157703853 0.7038860957616943 0.2961139042383057 0.5019822842296144 0.4980177157703853 0.5331513176195071 0.4668486823804928 0.5028597454529119 0.497140254547088 0.7187442942917839 0.2812557057082161 0.5028597454529119 0.497140254547088 0.5476019468489144 0.4523980531510856 0.5012471802808681 0.4987528197191319 0.5128735804304657 0.4871264195695345 0.5012471802808681 0.4987528197191319 0.5128735804304657 0.4871264195695345 0.5017992692732081 0.4982007307267918 0.5185590786546571 0.4814409213453427 0.5017992692732081 0.4982007307267918 0.5185590786546571 0.4814409213453427 0.8744834059023507 0.1255165940976492 0.5566251986331893 0.4433748013668109 0.5441960505174308 0.4558039494825692 0.6421072191657108 0.3578927808342892 0.6822107638097307 0.3177892361902694 0.5806168463304522 0.4193831536695479 0.5101438028973835 0.4898561971026166 0.8631781187564007 0.1368218812435993 0.5023710735440665 0.4976289264559336 0.5073860818922626 0.4926139181077374 0.5023710735440665 0.4976289264559336 0.5073860818922626 0.4926139181077374 0.5034206140080738 0.4965793859919262 0.5106532969342925 0.4893467030657074 0.5034206140080738 0.4965793859919262 0.5106532969342925 0.4893467030657074 0.7163259327022681 0.2836740672977319 0.5667047311488373 0.4332952688511625 0.7163259327022681 0.2836740672977319 0.532544999709916 0.4674550002900841 0.5063360940536955 0.4936639059463047 0.7194056791761176 0.2805943208238824 0.5063360940536955 0.4936639059463047 0.6933979503506824 0.3066020496493177 0.5012954784974852 0.4987045215025148 0.5040137387440425 0.4959862612559576 0.5012954784974852 0.4987045215025148 0.5040137387440425 0.4959862612559576 0.501868946017313 0.498131053982687 0.5057901278426803 0.4942098721573197 0.501868946017313 0.498131053982687 0.5057901278426803 0.4942098721573197 0.7482091451932675 0.2517908548067323 0.5533145222718386 0.4466854777281614 0.5252699416026312 0.4747300583973687 0.6373158588138921 0.362684141186108 0.5151010578031321 0.484898942196868 0.5760172881726756 0.4239827118273246 0.5052529192339135 0.4947470807660865 0.7901495107962193 0.2098504892037807 0.5022816436066011 0.4977183563933989 0.5237389714650151 0.476261028534985 0.5022816436066011 0.4977183563933989 0.5237389714650151 0.476261028534985 0.5032916074425184 0.4967083925574816 0.5341646435475651 0.465835356452435 0.5032916074425184 0.4967083925574816 0.5341646435475651 0.465835356452435 0.5019822842296144 0.4980177157703853 0.7038860957616943 0.2961139042383057 0.5019822842296144 0.4980177157703853 0.5331513176195071 0.4668486823804928 0.5028597454529119 0.497140254547088 0.7187442942917839 0.2812557057082161 0.5028597454529119 0.497140254547088 0.5476019468489144 0.4523980531510856 0.5012471802808681 0.4987528197191319 0.5128735804304657 0.4871264195695345 0.5012471802808681 0.4987528197191319 0.5128735804304657 0.4871264195695345 0.5017992692732081 0.4982007307267918 0.5185590786546571 0.4814409213453427 0.5017992692732081 0.4982007307267918 0.5185590786546571 0.4814409213453427 0.6049737107182571 0.3950262892817429 0.5128094407524312 0.4871905592475687 0.6049737107182571 0.3950262892817429 0.5154748347137702 0.4845251652862298 0.5093793271506634 0.4906206728493365 0.5184662501343713 0.4815337498656289 0.5093793271506634 0.4906206728493365 0.6336744167649512 0.3663255832350488 0.5025559180239405 0.4974440819760595 0.5245493920614672 0.4754506079385329 0.5025559180239405 0.4974440819760595 0.5245493920614672 0.4754506079385329 0.5036872627912502 0.4963127372087496 0.5353242298091592 0.4646757701908408 0.5036872627912502 0.4963127372087496 0.5353242298091592 0.4646757701908408 0.5031945866064512 0.4968054133935486 0.5029104209223902 0.4970895790776096 0.503168161696031 0.4968318383039691 0.5105740322205091 0.4894259677794909 0.5046085627678952 0.4953914372321048 0.5041986415655657 0.4958013584344342 0.5045704444512514 0.4954295555487486 0.6755864646891206 0.3244135353108792 0.5018695702670494 0.4981304297329506 0.5177068415447539 0.4822931584552461 0.5018695702670494 0.4981304297329506 0.5177068415447539 0.4822931584552461 0.5026971701008587 0.4973028298991414 0.5255119210206698 0.4744880789793302 0.5026971701008587 0.4973028298991414 0.5255119210206698 0.4744880789793302 0.6694252815584125 0.3305747184415875 0.6079696796205966 0.3920303203794033 0.6694252815584125 0.3305747184415875 0.6228440004210664 0.3771559995789335 0.6706390021100422 0.3293609978899578 0.8019148261470536 0.1980851738529464 0.6706390021100422 0.3293609978899578 0.8160451272862117 0.1839548727137883 0.5012661874096471 0.4987338125903529 0.5105442557008072 0.489455744299193 0.5012661874096471 0.4987338125903529 0.5105442557008072 0.489455744299193 0.5018266888640948 0.4981733111359054 0.5152045568829463 0.4847954431170538 0.5018266888640948 0.4981733111359054 0.5152045568829463 0.4847954431170538 0.7237958939937785 0.2762041060062214 0.5359098218749064 0.4640901781250936 0.5835507170704779 0.4164492829295221 0.6210356136812996 0.3789643863187004 0.7511265531121453 0.2488734468878549 0.5515245497902184 0.4484754502097816 0.5029881996991646 0.4970118003008353 0.8626308031778981 0.1373691968221019 0.5009278064283538 0.4990721935716461 0.5075670419223705 0.4924329580776297 0.5009278064283538 0.4990721935716461 0.5075670419223705 0.4924329580776297 0.5013385247403219 0.4986614752596781 0.5109141138448497 0.4890858861551502 0.5013385247403219 0.4986614752596781 0.5109141138448497 0.4890858861551502 0.6049737107182571 0.3950262892817429 0.5128094407524312 0.4871905592475687 0.6049737107182571 0.3950262892817429 0.5154748347137702 0.4845251652862298 0.5093793271506634 0.4906206728493365 0.5184662501343713 0.4815337498656289 0.5093793271506634 0.4906206728493365 0.6336744167649512 0.3663255832350488 0.5025559180239405 0.4974440819760595 0.5245493920614672 0.4754506079385329 0.5025559180239405 0.4974440819760595 0.5245493920614672 0.4754506079385329 0.5036872627912502 0.4963127372087496 0.5353242298091592 0.4646757701908408 0.5036872627912502 0.4963127372087496 0.5353242298091592 0.4646757701908408 0.5031945866064512 0.4968054133935486 0.5029104209223902 0.4970895790776096 0.503168161696031 0.4968318383039691 0.5105740322205091 0.4894259677794909 0.5046085627678952 0.4953914372321048 0.5041986415655657 0.4958013584344342 0.5045704444512514 0.4954295555487486 0.6755864646891206 0.3244135353108792 0.5018695702670494 0.4981304297329506 0.5177068415447539 0.4822931584552461 0.5018695702670494 0.4981304297329506 0.5177068415447539 0.4822931584552461 0.5026971701008587 0.4973028298991414 0.5255119210206698 0.4744880789793302 0.5026971701008587 0.4973028298991414 0.5255119210206698 0.4744880789793302 0.6694252815584125 0.3305747184415875 0.6079696796205966 0.3920303203794033 0.6694252815584125 0.3305747184415875 0.6228440004210664 0.3771559995789335 0.6706390021100422 0.3293609978899578 0.8019148261470536 0.1980851738529464 0.6706390021100422 0.3293609978899578 0.8160451272862117 0.1839548727137883 0.5012661874096471 0.4987338125903529 0.5105442557008072 0.489455744299193 0.5012661874096471 0.4987338125903529 0.5105442557008072 0.489455744299193 0.5018266888640948 0.4981733111359054 0.5152045568829463 0.4847954431170538 0.5018266888640948 0.4981733111359054 0.5152045568829463 0.4847954431170538 0.7237958939937785 0.2762041060062214 0.5359098218749064 0.4640901781250936 0.5835507170704779 0.4164492829295221 0.6210356136812996 0.3789643863187004 0.7511265531121453 0.2488734468878549 0.5515245497902184 0.4484754502097816 0.5029881996991646 0.4970118003008353 0.8626308031778981 0.1373691968221019 0.5009278064283538 0.4990721935716461 0.5075670419223705 0.4924329580776297 0.5009278064283538 0.4990721935716461 0.5075670419223705 0.4924329580776297 0.5013385247403219 0.4986614752596781 0.5109141138448497 0.4890858861551502 0.5013385247403219 0.4986614752596781 0.5109141138448497 0.4890858861551502</probabilities>
		</cpt>
		<cpt id="gfMAB">
			<state id="Low" />
			<state id="High" />
			<parents>recParticip</parents>
			<probabilities>0.7354667045548168 0.2645332954451833 0.2521128029975156 0.7478871970024845</probabilities>
		</cpt>
	</nodes>
	<extensions>
		<genie version="1.0" app="GeNIe 2.4.4601.0 ACADEMIC" name="Network1" faultnameformat="nodestate">
			<node id="profits">
				<name>profits</name>
				<interior color="e5f6f7" />
				<outline color="000080" />
				<font color="000000" name="Arial" size="8" />
				<position>524 80 572 110</position>
				<barchart active="true" />
			</node>
			<node id="employment">
				<name>employment</name>
				<interior color="e5f6f7" />
				<outline color="000080" />
				<font color="000000" name="Arial" size="8" />
				<position>666 98 747 141</position>
				<barchart active="true" />
			</node>
			<node id="seafood">
				<name>seafood</name>
				<interior color="e5f6f7" />
				<outline color="000080" />
				<font color="000000" name="Arial" size="8" />
				<position>822 119 878 154</position>
				<barchart active="true" />
			</node>
			<node id="soccultvals">
				<name>soccultvals</name>
				<interior color="e5f6f7" />
				<outline color="000080" />
				<font color="000000" name="Arial" size="8" />
				<position>951 102 1019 144</position>
				<barchart active="true" width="128" height="72" />
			</node>
			<node id="commPel">
				<name>commPel</name>
				<interior color="e5f6f7" />
				<outline color="000080" />
				<font color="000000" name="Arial" size="8" />
				<position>762 205 835 235</position>
				<barchart active="true" />
			</node>
			<node id="commGF">
				<name>commGF</name>
				<interior color="e5f6f7" />
				<outline color="000080" />
				<font color="000000" name="Arial" size="8" />
				<position>762 292 841 322</position>
				<barchart active="true" />
			</node>
			<node id="commSF">
				<name>commSF</name>
				<interior color="e5f6f7" />
				<outline color="000080" />
				<font color="000000" name="Arial" size="8" />
				<position>801 386 857 421</position>
				<barchart active="true" />
			</node>
			<node id="recParticip">
				<name>recParticip</name>
				<interior color="e5f6f7" />
				<outline color="000080" />
				<font color="000000" name="Arial" size="8" />
				<position>813 476 877 516</position>
				<barchart active="true" />
			</node>
			<node id="PS">
				<name>PS</name>
				<interior color="e5f6f7" />
				<outline color="000080" />
				<font color="000000" name="Arial" size="8" />
				<position>617 204 653 226</position>
				<barchart active="true" />
			</node>
			<node id="ground">
				<name>ground</name>
				<interior color="e5f6f7" />
				<outline color="000080" />
				<font color="000000" name="Arial" size="8" />
				<position>636 275 687 306</position>
				<barchart active="true" width="137" height="64" />
			</node>
			<node id="inverts">
				<name>inverts</name>
				<interior color="e5f6f7" />
				<outline color="000080" />
				<font color="000000" name="Arial" size="8" />
				<position>640 365 689 395</position>
				<barchart active="true" width="139" height="64" />
			</node>
			<node id="forage">
				<name>forage</name>
				<interior color="e5f6f7" />
				<outline color="000080" />
				<font color="000000" name="Arial" size="8" />
				<position>654 463 703 493</position>
				<barchart active="true" width="138" height="64" />
			</node>
			<node id="GZ">
				<name>GZ</name>
				<interior color="e5f6f7" />
				<outline color="000080" />
				<font color="000000" name="Arial" size="8" />
				<position>476 213 513 236</position>
				<barchart active="true" />
			</node>
			<node id="copepod">
				<name>copepod</name>
				<interior color="e5f6f7" />
				<outline color="000080" />
				<font color="000000" name="Arial" size="8" />
				<position>492 285 549 320</position>
				<barchart active="true" />
			</node>
			<node id="benthos">
				<name>benthos</name>
				<interior color="e5f6f7" />
				<outline color="000080" />
				<font color="000000" name="Arial" size="8" />
				<position>487 375 541 408</position>
				<barchart active="true" />
			</node>
			<node id="gfMAB">
				<name>gfMAB</name>
				<interior color="e5f6f7" />
				<outline color="000080" />
				<font color="000000" name="Arial" size="8" />
				<position>498 466 547 496</position>
				<barchart active="true" />
			</node>
			<node id="PP">
				<name>PP</name>
				<interior color="e5f6f7" />
				<outline color="000080" />
				<font color="000000" name="Arial" size="8" />
				<position>342 287 378 309</position>
				<barchart active="true" width="128" height="64" />
			</node>
			<node id="detBac">
				<name>detBac</name>
				<interior color="e5f6f7" />
				<outline color="000080" />
				<font color="000000" name="Arial" size="8" />
				<position>341 418 392 449</position>
				<barchart active="true" width="128" height="64" />
			</node>
			<node id="habPel">
				<name>habPel</name>
				<interior color="e5f6f7" />
				<outline color="000080" />
				<font color="000000" name="Arial" size="8" />
				<position>523 600 572 630</position>
				<barchart active="true" />
			</node>
			<node id="habNear">
				<name>habNear</name>
				<interior color="e5f6f7" />
				<outline color="000080" />
				<font color="000000" name="Arial" size="8" />
				<position>655 608 711 643</position>
				<barchart active="true" />
			</node>
			<node id="habDem">
				<name>habDem</name>
				<interior color="e5f6f7" />
				<outline color="000080" />
				<font color="000000" name="Arial" size="8" />
				<position>803 601 857 634</position>
				<barchart active="true" width="128" height="64" />
			</node>
			<node id="tides">
				<name>tides</name>
				<interior color="e5f6f7" />
				<outline color="000080" />
				<font color="000000" name="Arial" size="8" />
				<position>438 691 480 717</position>
				<barchart active="true" width="128" height="72" />
			</node>
			<node id="strat">
				<name>strat</name>
				<interior color="e5f6f7" />
				<outline color="000080" />
				<font color="000000" name="Arial" size="8" />
				<position>590 695 632 721</position>
				<barchart active="true" />
			</node>
			<node id="SSS">
				<name>SSS</name>
				<interior color="e5f6f7" />
				<outline color="000080" />
				<font color="000000" name="Arial" size="8" />
				<position>451 807 492 832</position>
				<barchart active="true" width="128" height="64" />
			</node>
			<node id="SST">
				<name>SST</name>
				<interior color="e5f6f7" />
				<outline color="000080" />
				<font color="000000" name="Arial" size="8" />
				<position>597 807 638 832</position>
				<barchart active="true" width="128" height="64" />
			</node>
			<node id="BT">
				<name>BT</name>
				<interior color="e5f6f7" />
				<outline color="000080" />
				<font color="000000" name="Arial" size="8" />
				<position>738 805 774 827</position>
				<barchart active="true" width="128" height="64" />
			</node>
			<node id="BS">
				<name>BS</name>
				<interior color="e5f6f7" />
				<outline color="000080" />
				<font color="000000" name="Arial" size="8" />
				<position>886 802 923 825</position>
				<barchart active="true" width="128" height="64" />
			</node>
			<node id="precip">
				<name>precip</name>
				<interior color="e5f6f7" />
				<outline color="000080" />
				<font color="000000" name="Arial" size="8" />
				<position>824 702 872 732</position>
				<barchart active="true" />
			</node>
			<node id="AT">
				<name>AT</name>
				<interior color="e5f6f7" />
				<outline color="000080" />
				<font color="000000" name="Arial" size="8" />
				<position>490 907 527 930</position>
				<barchart active="true" width="128" height="64" />
			</node>
			<node id="pctLSW">
				<name>pctLSW</name>
				<interior color="e5f6f7" />
				<outline color="000080" />
				<font color="000000" name="Arial" size="8" />
				<position>628 899 682 932</position>
				<barchart active="true" />
			</node>
			<node id="winds">
				<name>winds</name>
				<interior color="e5f6f7" />
				<outline color="000080" />
				<font color="000000" name="Arial" size="8" />
				<position>795 903 843 933</position>
				<barchart active="true" width="128" height="64" />
			</node>
		</genie>
	</extensions>
</smile>
