<?xml version="1.0" encoding="ISO-8859-1"?>
<!-- This network was created in GeNIe Academic, which can be used for educational and research purposes only -->
<smile version="1.0" id="Network1" numsamples="10000" discsamples="10000">
	<nodes>
		<cpt id="winds">
			<state id="Low" />
			<state id="High" />
			<probabilities>0.5848884919183294 0.4151115080816706</probabilities>
		</cpt>
		<cpt id="AT">
			<state id="Low" />
			<state id="High" />
			<probabilities>0.5337745523777508 0.4662254476222491</probabilities>
		</cpt>
		<cpt id="precip">
			<state id="Low" />
			<state id="High" />
			<probabilities>0.6264112511041011 0.3735887488958988</probabilities>
		</cpt>
		<cpt id="recParticip">
			<state id="Low" />
			<state id="High" />
			<parents>winds AT precip</parents>
			<probabilities>0.6170951219291523 0.3829048780708477 0.2876459195453575 0.7123540804546428 0.7648979605032902 0.2351020394967098 0.3875914485925356 0.6124085514074644 0.7031403127268258 0.2968596872731742 0.5267677981561021 0.4732322018438979 0.4583825136660281 0.5416174863339719 0.3248032661098998 0.6751967338901003</probabilities>
		</cpt>
		<cpt id="commSF">
			<state id="Below_MSY" />
			<state id="Above_MSY" />
			<parents>winds</parents>
			<probabilities>0.1571428571428571 0.8428571428571429 0.2736449623161991 0.7263550376838011</probabilities>
		</cpt>
		<cpt id="commGF">
			<state id="Below_MSY" />
			<state id="Above_MSY" />
			<parents>winds</parents>
			<probabilities>0.07142857142857141 0.9285714285714285 0.3920663890852074 0.6079336109147926</probabilities>
		</cpt>
		<cpt id="commPel">
			<state id="Below_MSY" />
			<state id="Above_MSY" />
			<parents>winds</parents>
			<probabilities>0.4428571428571428 0.5571428571428572 0.3119709443857588 0.6880290556142412</probabilities>
		</cpt>
		<cpt id="profits">
			<state id="Low" />
			<state id="High" />
			<parents>recParticip commSF commGF commPel</parents>
			<probabilities>0.5 0.5 0.5 0.5 0.5 0.5 0.7499999999999999 0.25 0.4999999999999999 0.4999999999999999 0.5 0.5 0.8196704283091634 0.1803295716908365 0.8737473327929148 0.1262526672070853 0.5 0.5 0.75 0.25 0.5 0.5 0.25 0.7500000000000001 0.5 0.5 0.1250000000000819 0.8749999999999182 0.5 0.5 0.357147365692515 0.642852634307485</probabilities>
		</cpt>
		<cpt id="employment">
			<state id="Low" />
			<state id="High" />
			<parents>recParticip commSF commGF commPel</parents>
			<probabilities>0.5 0.5 0.5 0.5 0.5 0.5 0.25 0.7499999999999999 0.4999999999999999 0.4999999999999999 0.5 0.5 0.5 0.5 0.4999999999999999 0.4999999999999999 0.5 0.5 0.4999999999999999 0.4999999999999999 0.5 0.5 0.5 0.5 0.5 0.5 0.3750000000000273 0.6249999999999726 0.5 0.5 0.5 0.5</probabilities>
		</cpt>
		<cpt id="seafood">
			<state id="Low" />
			<state id="High" />
			<parents>recParticip commSF commGF</parents>
			<probabilities>0.766564736843228 0.2334352631567719 0.183601534993432 0.816398465006568 0.5564788398813247 0.4435211601186753 0.7990536740441949 0.2009463259558051 0.08504607094326916 0.9149539290567308 0.5201175722863104 0.4798824277136897 0.1296051906559156 0.8703948093440844 0.4940934401004892 0.5059065598995108</probabilities>
		</cpt>
		<cpt id="soccultvals">
			<state id="Better" />
			<state id="Unchanged" />
			<state id="Worse" />
			<parents>commGF recParticip</parents>
			<probabilities>0.2 0.333 0.467 0.3 0.533 0.167 0.267 0.5659999999999999 0.167 0.367 0.5669999999999999 0.066</probabilities>
		</cpt>
		<cpt id="pctLSW">
			<state id="Low" />
			<state id="High" />
			<probabilities>0.5106897556245423 0.4893102443754576</probabilities>
		</cpt>
		<cpt id="SSS">
			<state id="Low" />
			<state id="High" />
			<parents>AT pctLSW winds</parents>
			<probabilities>0.3721006781426851 0.627899321857315 0.8413908563440367 0.1586091436559633 0.3434001627464965 0.6565998372535035 0.09592771421233487 0.9040722857876651 0.5537477559404722 0.4462522440595278 0.1826199847050926 0.8173800152949073 0.3269976090706774 0.6730023909293227 0.7128997189652446 0.2871002810347553</probabilities>
		</cpt>
		<cpt id="SST">
			<state id="Low" />
			<state id="High" />
			<parents>AT pctLSW winds</parents>
			<probabilities>0.7863478649051457 0.2136521350948542 0.851447203341915 0.148552796658085 0.6539939815817482 0.3460060184182518 0.487793357898342 0.512206642101658 0.5527936246556892 0.4472063753443108 0.1913364634781593 0.8086635365218406 0.108748574540642 0.891251425459358 0.2414108276946519 0.7585891723053479</probabilities>
		</cpt>
		<cpt id="BS">
			<state id="Low" />
			<state id="High" />
			<parents>AT pctLSW winds</parents>
			<probabilities>0.5088169587633707 0.4911830412366293 0.8582986664061348 0.1417013335938651 0.376165520857098 0.6238344791429018 0.092123816267454 0.907876183732546 0.3415766693617379 0.6584233306382622 0.2088229632895377 0.7911770367104622 0.3411403151581832 0.6588596848418169 0.7393588611562666 0.2606411388437334</probabilities>
		</cpt>
		<cpt id="BT">
			<state id="Low" />
			<state id="High" />
			<parents>AT pctLSW winds</parents>
			<probabilities>0.6496698501752308 0.3503301498247692 0.8676874861565231 0.1323125138434768 0.7808812899218501 0.2191187100781498 0.4565412645313759 0.543458735468624 0.6330215000804646 0.3669784999195354 0.1740871416720871 0.8259128583279128 0.4881149094671389 0.5118850905328612 0.2644095825412864 0.7355904174587135</probabilities>
		</cpt>
		<cpt id="tides">
			<state id="Min" />
			<state id="Intermediate" />
			<state id="Max" />
			<probabilities>0.1555555555555555 0.6722222222222222 0.1722222222222222</probabilities>
		</cpt>
		<cpt id="strat">
			<state id="Low" />
			<state id="High" />
			<parents>BS BT SST SSS tides</parents>
			<probabilities>0.2612443106962349 0.7387556893037652 0.8631289391347805 0.1368710608652195 0.8775570691426189 0.1224429308573811 0.7893765262431253 0.2106234737568747 0.5106657433734125 0.4893342566265875 0.496306574904407 0.503693425095593 0.5019245600664635 0.4980754399335365 0.5277538284452344 0.4722461715547655 0.5041416674086181 0.4958583325913818 0.5547411847201448 0.4452588152798551 0.4630976404353657 0.5369023595646343 0.4861786302125788 0.5138213697874211 0.5018313338907689 0.4981686661092311 0.4991982852027492 0.5008017147972509 0.5006279241271174 0.4993720758728827 0.4946857061229019 0.5053142938770981 0.4573934982982731 0.5426065017017269 0.4950000535382903 0.5049999464617096 0.2471020596221805 0.7528979403778194 0.1026177319739927 0.8973822680260074 0.505800015503469 0.494199984496531 0.5050202760673027 0.4949797239326973 0.3626672783145078 0.6373327216854922 0.4728176167679723 0.5271823832320277 0.5195461888317172 0.4804538111682828 0.4986467969018248 0.5013532030981752 0.5016685687663525 0.4983314312336476 0.5497021955941165 0.4502978044058836 0.160346718146948 0.8396532818530522 0.4875807089368195 0.5124192910631806 0.502708499062878 0.497291500937122 0.5295144469327784 0.4704855530672216 0.5162209465669089 0.4837790534330911 0.263348273538376 0.7366517264616239 0.728145825993485 0.2718541740065149 0.17237976656105 0.82762023343895 0.5147658835785528 0.4852341164214472 0.499987245742997 0.5000127542570031 0.5004106472043361 0.4995893527956639 0.6548019473382194 0.3451980526617806 0.4916941651609925 0.5083058348390076 0.4967268833962284 0.5032731166037716 0.5022757477969857 0.4977242522030144 0.4708484264939695 0.5291515735060305 0.5051387648351481 0.494861235164852 0.5546665954771031 0.445333404522897 0.6759139283706634 0.3240860716293365 0.4943819180864666 0.5056180819135335</probabilities>
		</cpt>
		<cpt id="habPel">
			<state id="Low" />
			<state id="High" />
			<parents>SSS winds SST strat</parents>
			<probabilities>0.4473038818625446 0.5526961181374553 0.4859287977927172 0.5140712022072829 0.4394979683028139 0.5605020316971862 0.6954936411159962 0.3045063588840038 0.1631800134014798 0.8368199865985203 0.2779721108922862 0.7220278891077138 0.5412007073361504 0.4587992926638496 0.1168960545076214 0.8831039454923785 0.821439402220018 0.178560597779982 0.5199014104165253 0.4800985895834746 0.8446495132900597 0.1553504867099404 0.410750093844901 0.5892499061550989 0.7112608199994813 0.2887391800005187 0.5624121150416886 0.4375878849583113 0.609526325480949 0.3904736745190512 0.7981945650604877 0.2018054349395122</probabilities>
		</cpt>
		<cpt id="habNear">
			<state id="Increasing" />
			<state id="Decreasing" />
			<parents>BT SSS strat BS SST</parents>
			<probabilities>0.12782 0.87218 0.5 0.5 0.5 0.5 0.5 0.5 0.17982 0.82018 0.16875 0.83125 0.5 0.5 0.5 0.5 0.13333 0.8666700000000001 0.5 0.5 0.5 0.5 0.5 0.5 0.5 0.5 0.5 0.5 0.5 0.5 0.16667 0.83333 0.5 0.5 0.5 0.5 0.5 0.5 0.5 0.5 0.5 0.5 0.18248 0.81752 0.5 0.5 0.5 0.5 0.5 0.5 0.5 0.5 0.5 0.5 0.16 0.84 0.5 0.5 0.16129 0.83871 0.5 0.5 0.15044 0.84956</probabilities>
		</cpt>
		<cpt id="PP">
			<state id="Low" />
			<state id="High" />
			<parents>habPel</parents>
			<probabilities>0.9101809006837982 0.08981909931620172 0.7262231565437801 0.2737768434562201</probabilities>
		</cpt>
		<cpt id="copepod">
			<state id="Low" />
			<state id="High" />
			<parents>PP</parents>
			<probabilities>0.6778487626618096 0.3221512373381903 0.302784126972355 0.697215873027645</probabilities>
		</cpt>
		<cpt id="habDem">
			<state id="Low" />
			<state id="High" />
			<parents>BT BS commSF commGF</parents>
			<probabilities>0.5033258144079461 0.4966741855920538 0.2497394557064347 0.7502605442935653 0.4966887721969736 0.5033112278030264 0.4526214326112307 0.5473785673887693 0.504067105163326 0.495932894836674 0.7953216758262284 0.2046783241737716 0.2504020602151263 0.7495979397848737 0.2203908779606778 0.7796091220393222 0.4987999027327283 0.5012000972672715 0.4937381529427346 0.5062618470572655 0.2476951012177904 0.7523048987822096 0.091391350855408 0.9086086491445919 0.8845958926096574 0.1154041073903426 0.487042741910606 0.5129572580893942 0.2525439717141435 0.7474560282858564 0.6468202660050287 0.3531797339949713</probabilities>
		</cpt>
		<cpt id="benthos">
			<state id="Low" />
			<state id="High" />
			<parents>PP</parents>
			<probabilities>0.5287036384521551 0.4712963615478449 0.5174608009667497 0.4825391990332503</probabilities>
		</cpt>
		<cpt id="ground">
			<state id="Above_Bmsy" />
			<state id="Below_Bmsy" />
			<parents>habPel habNear habDem benthos commGF</parents>
			<probabilities>0.6507027157733979 0.3492972842266022 0.8303816808347777 0.1696183191652222 0.6612085823648191 0.3387914176351809 0.7918035360217415 0.2081964639782585 0.5049185171590922 0.4950814828409079 0.6286609336124236 0.3713390663875764 0.5388402158257147 0.4611597841742852 0.5653750872657413 0.4346249127342587 0.7007744337774692 0.2992255662225308 0.940047310274789 0.05995268972521108 0.8729849165326244 0.1270150834673757 0.8886596266618144 0.1113403733381856 0.5314885706392194 0.4685114293607807 0.8267320026588831 0.173267997341117 0.7836709312621499 0.2163290687378502 0.8862134655320624 0.1137865344679377 0.5033788443873095 0.4966211556126905 0.458211973672114 0.541788026327886 0.5471750385275181 0.4528249614724819 0.5417065690195415 0.4582934309804585 0.5339601506688003 0.4660398493311997 0.8411689745869358 0.1588310254130641 0.5379713224360653 0.4620286775639348 0.6971185043290733 0.3028814956709266 0.5120243169767378 0.4879756830232622 0.4041936756673679 0.5958063243326321 0.7928802767870411 0.2071197232129589 0.7350967560583831 0.2649032439416169 0.7566325259703183 0.2433674740296817 0.9521084608989727 0.04789153910102732 0.7654648459392822 0.2345351540607178 0.9169383308519058 0.08306166914809422</probabilities>
		</cpt>
		<cpt id="PS">
			<state id="Low" />
			<state id="High" />
			<parents>habPel habNear copepod ground commGF commPel</parents>
			<probabilities>0.6478783103941843 0.3521216896058156 0.3345203742104607 0.6654796257895392 0.7141806236615041 0.285819376338496 0.4468981504252261 0.553101849574774 0.5 0.5 0.5 0.5 0.5 0.5 0.5 0.5 0.5 0.5 0.4993464494105747 0.5006535505894252 0.5 0.5 0.2708396939376127 0.7291603060623875 0.5 0.5 0.5 0.5 0.5 0.5 0.5 0.5 0.6970816885416213 0.3029183114583787 0.09864215003960332 0.9013578499603966 0.9198520878888244 0.08014791211117553 0.1936266128051546 0.8063733871948453 0.5 0.5 0.5 0.5 0.5 0.5 0.5 0.5 0.5 0.5 0.5090299628779211 0.4909700371220787 0.5 0.5 0.8780100231646445 0.1219899768353555 0.5 0.5 0.5 0.5 0.5 0.5 0.5 0.5 0.5 0.5 0.4830663331244709 0.5169336668755289 0.4999999999999999 0.4999999999999999 0.4693394469236046 0.5306605530763955 0.5 0.5 0.5 0.5 0.5 0.5 0.4999999999999999 0.4999999999999999 0.500157054446248 0.4998429455537521 0.4286903562881252 0.5713096437118748 0.5400845995545152 0.4599154004454848 0.3316499369647729 0.6683500630352271 0.5 0.5 0.5 0.5 0.5 0.5 0.5 0.5 0.5 0.5 0.33204653236229 0.6679534676377098 0.5 0.5 0.466394191881414 0.533605808118586 0.5 0.5 0.5 0.5 0.5 0.5 0.5 0.5 0.5042221567905758 0.4957778432094241 0.1290298433377923 0.8709701566622078 0.8494406899684525 0.1505593100315477 0.1645608854318735 0.8354391145681266 0.5 0.5 0.5 0.5 0.5 0.5 0.5 0.5</probabilities>
		</cpt>
		<cpt id="detBac">
			<state id="Low" />
			<state id="High" />
			<probabilities>0.4186427663552554 0.5813572336447446</probabilities>
		</cpt>
		<cpt id="inverts">
			<state id="Above_Bmsy" />
			<state id="Below_Bmsy" />
			<parents>habNear habDem PP detBac benthos commSF ground</parents>
			<probabilities>0.3764143463006323 0.6235856536993677 0.4931895376794537 0.5068104623205464 0.2919004833820892 0.7080995166179107 0.4683939230480338 0.5316060769519662 0.4119824943787231 0.5880175056212769 0.4942319276936599 0.5057680723063401 0.4490703301345276 0.5509296698654724 0.4726133774110244 0.5273866225889756 0.3369178710860838 0.6630821289139163 0.4905558157643536 0.5094441842356464 0.2431192069127673 0.7568807930872327 0.456335056386166 0.543664943613834 0.2606603486857988 0.7393396513142012 0.4920004596222411 0.507999540377759 0.3615385411779483 0.6384614588220517 0.462121908888763 0.5378780911112371 0.4829879806678112 0.5170120193321888 0.4984465305334506 0.5015534694665493 0.480674581771147 0.5193254182288529 0.4907550824061402 0.5092449175938598 0.4980828567781054 0.5019171432218946 0.4986968772854761 0.5013031227145239 0.4802840663157218 0.5197159336842783 0.4925629674340913 0.5074370325659086 0.4764184699677835 0.5235815300322164 0.4978451676303582 0.5021548323696419 0.4732154858722445 0.5267845141277555 0.4871778223662482 0.5128221776337517 0.49734084099981 0.5026591590001902 0.498192498573521 0.5018075014264789 0.4619726821072808 0.5380273178927192 0.4896866633731038 0.5103133366268962 0.4795495319799608 0.520450468020039 0.4946996464157412 0.5053003535842587 0.2580887013841594 0.7419112986158407 0.4437445513382854 0.5562554486617145 0.5173537015769644 0.4826462984230356 0.4954681220605752 0.5045318779394248 0.3739422104995309 0.6260577895004692 0.4347692808236843 0.5652307191763157 0.471683225938236 0.528316774061764 0.4926492597664134 0.5073507402335865 0.173545356068641 0.8264546439313589 0.4228850785461142 0.5771149214538859 0.494359854194688 0.5056401458053121 0.4937145636043386 0.5062854363956614 0.3035936947466633 0.6964063052533368 0.4108963158052767 0.5891036841947233 0.4962441042258705 0.5037558957741295 0.4989396580312181 0.5010603419687818 0.41751806548371 0.5824819345162899 0.4904085723012814 0.5095914276987187 0.4988175643584256 0.5011824356415743 0.4990658539380009 0.500934146061999 0.4651828282998131 0.5348171717001868 0.48714778828645 0.5128522117135501 0.4947898985059457 0.5052101014940543 0.4985292010552036 0.5014707989447964 0.3691785103306197 0.6308214896693802 0.4866973236699122 0.513302676330088 0.4983598952551547 0.5016401047448453 0.4987042839932811 0.5012957160067189 0.4003499176543491 0.5996500823456509 0.4821845267635181 0.5178154732364819 0.334036030560809 0.6659639694391909 0.4893748515213631 0.5106251484786368 0.1271487665959811 0.8728512334040188 0.4432817888467731 0.5567182111532271 0.3974901271383246 0.6025098728616753 0.4959507302185464 0.5040492697814536 0.3345046025424113 0.6654953974575888 0.4698294523349594 0.5301705476650406 0.2879243302303615 0.7120756697696384 0.4852701841098969 0.5147298158901031 0.09592535658375415 0.9040746434162458 0.4222735642836249 0.5777264357163749 0.699749232501504 0.3002507674984961 0.494383830568617 0.5056161694313831 0.1790731897564436 0.8209268102435565 0.4582966672767274 0.5417033327232728 0.475760606617588 0.524239393382412 0.4974450181270633 0.5025549818729368 0.4457922050236527 0.5542077949763473 0.4801294289242272 0.5198705710757727 0.4950662397163992 0.5049337602836008 0.4990169136188277 0.5009830863811723 0.4273574843371182 0.5726425156628818 0.4912712559141201 0.5087287440858799 0.466431652991565 0.5335683470084349 0.4964559229676958 0.5035440770323043 0.4255007471235187 0.5744992528764813 0.4724657325517479 0.5275342674482522 0.4931572145089785 0.5068427854910215 0.4986364013846583 0.5013635986153419 0.2175153140578872 0.782484685942113 0.4878963706852909 0.512103629314709 0.3678147231465795 0.6321852768534204 0.4932496613865422 0.5067503386134579 0.1166500604290498 0.8833499395709502 0.4590403995039812 0.5409596004960189 0.6526949046189731 0.3473050953810269 0.4964410723549183 0.5035589276450818 0.1258710185793342 0.8741289814206659 0.4705982167280104 0.5294017832719895 0.3266604304387433 0.6733395695612567 0.4906390494534725 0.5093609505465275 0.06773911785196349 0.9322608821480366 0.4435526882296548 0.5564473117703453 0.5153715136315383 0.4846284863684618 0.4950638282575348 0.5049361717424651 0.08616554064350011 0.9138344593565 0.4593510272900305 0.5406489727099696 0.4743679836232913 0.5256320163767088 0.4988465135928879 0.5011534864071121 0.2530716233282544 0.7469283766717456 0.4935420747438571 0.5064579252561429 0.4966376982212025 0.5033623017787974 0.4992220627651063 0.5007779372348936 0.4148742457278239 0.5851257542721759 0.4938371000471365 0.5061628999528636 0.4645010942907515 0.5354989057092485 0.498399997023269 0.5016000029767309 0.1433374614048988 0.8566625385951012 0.491042342499159 0.508957657500841 0.4953364875786748 0.5046635124213251 0.4989209535191987 0.5010790464808013 0.1524592506409264 0.8475407493590735 0.4914529753365097 0.5085470246634903</probabilities>
		</cpt>
		<cpt id="GZ">
			<state id="Low" />
			<state id="High" />
			<probabilities>0.4110433348859104 0.5889566651140896</probabilities>
		</cpt>
		<cpt id="forage">
			<state id="Above_Bmsy" />
			<state id="Below_Bmsy" />
			<parents>habPel habNear habDem copepod ground GZ PS commPel</parents>
			<probabilities>0.7818570676196218 0.2181429323803781 0.5528030989998566 0.4471969010001434 0.5523467504816312 0.4476532495183689 0.5662484574491745 0.4337515425508255 0.5416119840896262 0.4583880159103738 0.574800527771426 0.425199472228574 0.5081333434655247 0.4918666565344751 0.7142943988413337 0.2857056011586664 0.5024512138358073 0.4975487861641928 0.5078021568500365 0.4921978431499635 0.5024512138358073 0.4975487861641928 0.5078021568500365 0.4921978431499635 0.5035122058651842 0.4964877941348158 0.5111767112824136 0.4888232887175863 0.5035122058651842 0.4964877941348158 0.5111767112824136 0.4888232887175863 0.6373858353633912 0.3626141646366088 0.5162390303716672 0.4837609696283327 0.6373858353633912 0.3626141646366088 0.5422409725200844 0.4577590274799155 0.5046123117306738 0.4953876882693261 0.5340748430533558 0.4659251569466442 0.5046123117306738 0.4953876882693261 0.7657872807984392 0.2342127192015608 0.5013507839720732 0.4986492160279268 0.5042797133781671 0.4957202866218329 0.5013507839720732 0.4986492160279268 0.5042797133781671 0.4957202866218329 0.5019354947220764 0.4980645052779237 0.5061318392458033 0.4938681607541968 0.5019354947220764 0.4980645052779237 0.5061318392458033 0.4938681607541968 0.6247246329902794 0.3752753670097208 0.5438781603093599 0.4561218396906401 0.5423616466590296 0.4576383533409703 0.5561817641711122 0.4438182358288877 0.5084243641069349 0.491575635893065 0.5623736836145007 0.4376263163854995 0.5041847179382613 0.4958152820617386 0.6039844791293659 0.396015520870634 0.5022038646658404 0.4977961353341595 0.532373152493542 0.467626847506458 0.5022038646658404 0.4977961353341595 0.532373152493542 0.467626847506458 0.5031578108831134 0.4968421891168866 0.5461847054735232 0.4538152945264768 0.5031578108831134 0.4968421891168866 0.5461847054735232 0.4538152945264768 0.5013322094038836 0.4986677905961165 0.5245045532142877 0.4754954467857124 0.5013322094038836 0.4986677905961165 0.5353752638431739 0.4646247361568259 0.5019088809096099 0.4980911190903902 0.5283525081482904 0.4716474918517096 0.5019088809096099 0.4980911190903902 0.5504249084647675 0.4495750915352322 0.5012148167008206 0.4987851832991793 0.5176697146348601 0.4823302853651399 0.5012148167008206 0.4987851832991793 0.5176697146348601 0.4823302853651399 0.5017406749657642 0.4982593250342357 0.5252853888461672 0.4747146111538328 0.5017406749657642 0.4982593250342357 0.5252853888461672 0.4747146111538328 0.9115984968422384 0.08840150315776159 0.5555100021562505 0.4444899978437494 0.5424781238053625 0.4575218761946374 0.701318294242177 0.298681705757823 0.7566057374220629 0.243394262577937 0.5785696957285121 0.421430304271488 0.5116159184315046 0.4883840815684956 0.908593946635598 0.09140605336440198 0.5026143584284015 0.4973856415715986 0.5066123693965733 0.4933876306034268 0.5026143584284015 0.4973856415715986 0.5066123693965733 0.4933876306034268 0.5037459427700864 0.4962540572299135 0.5094730057346261 0.490526994265374 0.5037459427700864 0.4962540572299135 0.5094730057346261 0.490526994265374 0.7670460598606015 0.2329539401393985 0.615953558961439 0.384046441038561 0.7670460598606015 0.2329539401393985 0.5188012227295429 0.4811987772704572 0.5079444262452995 0.4920555737547005 0.8032010049427996 0.1967989950572005 0.5079444262452995 0.4920555737547005 0.550066276708055 0.4499337232919449 0.5014395532351272 0.4985604467648726 0.5036208275649893 0.4963791724350106 0.5014395532351272 0.4985604467648726 0.5036208275649893 0.4963791724350106 0.5020626873694429 0.4979373126305569 0.5051879178809628 0.494812082119037 0.5020626873694429 0.4979373126305569 0.5051879178809628 0.494812082119037 0.8083085081923997 0.1916914918076003 0.5535267229228897 0.4464732770771103 0.5212852391224179 0.4787147608775821 0.6989620100211229 0.301037989978877 0.5210861092635605 0.4789138907364395 0.5758291719177648 0.4241708280822351 0.5062163314947971 0.4937836685052029 0.857307567662741 0.142692432337259 0.5025087969933468 0.4974912030066533 0.5185761990650369 0.4814238009349631 0.5025087969933468 0.4974912030066533 0.5185761990650369 0.4814238009349631 0.5035947008644949 0.4964052991355052 0.5265785318074709 0.4734214681925292 0.5035947008644949 0.4964052991355052 0.5265785318074709 0.4734214681925292 0.5026660770765343 0.4973339229234658 0.7890378177692742 0.2109621822307257 0.5026660770765343 0.4973339229234658 0.5217013205244699 0.4782986794755302 0.5038200385245644 0.4961799614754356 0.804322034313517 0.195677965686483 0.5038200385245644 0.4961799614754356 0.5310339905940544 0.4689660094059455 0.5013822660258231 0.4986177339741769 0.5101681899300168 0.4898318100699831 0.5013822660258231 0.4986177339741769 0.5101681899300168 0.4898318100699831 0.5019806044986275 0.4980193955013726 0.5145634272030793 0.4854365727969207 0.5019806044986275 0.4980193955013726 0.5145634272030793 0.4854365727969207 0.5329239759126549 0.467076024087345 0.5086062464111145 0.4913937535888854 0.5329239759126549 0.467076024087345 0.5096168663257908 0.4903831336742092 0.5064240619185993 0.4935759380814007 0.5123276547416427 0.4876723452583573 0.5064240619185993 0.4935759380814007 0.5378961873774213 0.4621038126225788 0.5022062735342917 0.4977937264657084 0.5152118761377288 0.4847881238622712 0.5022062735342917 0.4977937264657084 0.5152118761377288 0.4847881238622712 0.503161257595355 0.496838742404645 0.5217753992632973 0.4782246007367026 0.503161257595355 0.496838742404645 0.5217753992632973 0.4782246007367026 0.5021051928957231 0.4978948071042768 0.5028774116903968 0.4971225883096033 0.5021038704588109 0.4978961295411891 0.505385663875943 0.494614336124057 0.503016431418192 0.4969835685818079 0.5041228421970542 0.4958771578029459 0.5030145365397004 0.4969854634602995 0.5339878207060377 0.4660121792939623 0.5016269163624404 0.4983730836375595 0.511096961125759 0.4889030388742411 0.5016269163624404 0.4983730836375595 0.511096961125759 0.4889030388742411 0.5023311548667306 0.4976688451332693 0.5158926256830382 0.4841073743169619 0.5023311548667306 0.4976688451332693 0.5158926256830382 0.4841073743169619 0.5883320551510639 0.4116679448489362 0.5710820389364402 0.4289179610635598 0.5883320551510639 0.4116679448489362 0.5796817479066934 0.4203182520933065 0.605812180712228 0.3941878192877722 0.6448491870446881 0.3551508129553119 0.605812180712228 0.3941878192877722 0.6675808959139556 0.3324191040860443 0.5013930859807055 0.4986069140192944 0.5153026566574281 0.4846973433425719 0.5013930859807055 0.4986069140192944 0.5153026566574281 0.4846973433425719 0.5019961060595748 0.4980038939404251 0.5219052395425754 0.4780947604574248 0.5019961060595748 0.4980038939404251 0.5219052395425754 0.4780947604574248 0.5737980042356092 0.4262019957643908 0.534149042747377 0.4658509572526232 0.5634033597773035 0.4365966402226965 0.5666885170224737 0.4333114829775263 0.5403679074570586 0.4596320925429413 0.5486967015131543 0.4513032984868456 0.5017128005680986 0.4982871994319013 0.7254852805810514 0.2745147194189485 0.5010280318147133 0.4989719681852868 0.5109650539845001 0.4890349460155 0.5010280318147133 0.4989719681852868 0.5109650539845001 0.4890349460155 0.5014730402415641 0.498526959758436 0.515703616861163 0.4842963831388372 0.5014730402415641 0.498526959758436 0.515703616861163 0.4842963831388372 0.6575561328730989 0.3424438671269009 0.5160284013103504 0.4839715986896497 0.6575561328730989 0.3424438671269009 0.5211345652871573 0.4788654347128428 0.5114470471080933 0.4885529528919068 0.5229414236305634 0.4770585763694365 0.5114470471080933 0.4885529528919068 0.7089249949027163 0.2910750050972836 0.502876006506884 0.497123993493116 0.5284190585399959 0.471580941460004 0.502876006506884 0.497123993493116 0.5284190585399959 0.471580941460004 0.5041208218525947 0.4958791781474052 0.5405824173542496 0.4594175826457504 0.5041208218525947 0.4958791781474052 0.5405824173542496 0.4594175826457504 0.5040405746687078 0.4959594253312921 0.5028296909261172 0.4971703090738829 0.5039727985591932 0.4960272014408069 0.5152812892017352 0.4847187107982649 0.5057892615269732 0.4942107384730268 0.5040544573708448 0.4959455426291554 0.5056921636205209 0.4943078363794791 0.751170100143321 0.2488298998566789 0.5021170832594618 0.4978829167405381 0.5206140010984246 0.4793859989015756 0.5021170832594618 0.4978829167405381 0.5206140010984246 0.4793859989015756 0.5030334944491457 0.4969665055508542 0.5294863653865441 0.4705136346134558 0.5030334944491457 0.4969665055508542 0.5294863653865441 0.4705136346134558 0.7240384907714911 0.275961509228509 0.6385859464069011 0.3614140535930988 0.7240384907714911 0.275961509228509 0.6602695857202454 0.3397304142797546 0.7174365927252343 0.2825634072747658 0.861163597371828 0.1388364026281718 0.7174365927252343 0.2825634072747658 0.8723778578985572 0.1276221421014429 0.5012431621868011 0.4987568378131989 0.5080523779375998 0.4919476220624002 0.5012431621868011 0.4987568378131989 0.5080523779375998 0.4919476220624002 0.5017812886008965 0.4982187113991035 0.5115348759728284 0.4884651240271715 0.5017812886008965 0.4982187113991035 0.5115348759728284 0.4884651240271715 0.800321729630273 0.199678270369727 0.5364334485246441 0.4635665514753558 0.5833917672355766 0.4166082327644234 0.6679423828382184 0.3320576171617816 0.8293920738376671 0.1706079261623329 0.5519196673776928 0.4480803326223073 0.5043914412507693 0.4956085587492307 0.9081878813841264 0.09181211861587361 0.5009171395856918 0.4990828604143082 0.505846697838538 0.4941533021614622 0.5009171395856918 0.4990828604143082 0.505846697838538 0.4941533021614622 0.5013141467307199 0.4986858532692801 0.5083763915862169 0.4916236084137832 0.5013141467307199 0.4986858532692801 0.5083763915862169 0.4916236084137832</probabilities>
		</cpt>
		<cpt id="gfMAB">
			<state id="Low" />
			<state id="High" />
			<parents>recParticip</parents>
			<probabilities>0.7353948999944399 0.2646051000055602 0.2523034796710679 0.7476965203289321</probabilities>
		</cpt>
	</nodes>
	<extensions>
		<genie version="1.0" app="GeNIe 2.3.3828.0 ACADEMIC" name="Network1" faultnameformat="nodestate">
			<node id="profits">
				<name>profits</name>
				<interior color="e5f6f7" />
				<outline color="000080" />
				<font color="000000" name="Arial" size="8" />
				<position>524 80 572 110</position>
				<barchart active="true" />
			</node>
			<node id="employment">
				<name>employment</name>
				<interior color="e5f6f7" />
				<outline color="000080" />
				<font color="000000" name="Arial" size="8" />
				<position>666 98 747 141</position>
				<barchart active="true" />
			</node>
			<node id="seafood">
				<name>seafood</name>
				<interior color="e5f6f7" />
				<outline color="000080" />
				<font color="000000" name="Arial" size="8" />
				<position>822 119 878 154</position>
				<barchart active="true" />
			</node>
			<node id="soccultvals">
				<name>soccultvals</name>
				<interior color="e5f6f7" />
				<outline color="000080" />
				<font color="000000" name="Arial" size="8" />
				<position>951 102 1019 144</position>
				<barchart active="true" width="128" height="72" />
			</node>
			<node id="commPel">
				<name>commPel</name>
				<interior color="e5f6f7" />
				<outline color="000080" />
				<font color="000000" name="Arial" size="8" />
				<position>762 205 835 235</position>
				<barchart active="true" />
			</node>
			<node id="commGF">
				<name>commGF</name>
				<interior color="e5f6f7" />
				<outline color="000080" />
				<font color="000000" name="Arial" size="8" />
				<position>762 292 841 322</position>
				<barchart active="true" />
			</node>
			<node id="commSF">
				<name>commSF</name>
				<interior color="e5f6f7" />
				<outline color="000080" />
				<font color="000000" name="Arial" size="8" />
				<position>801 386 857 421</position>
				<barchart active="true" />
			</node>
			<node id="recParticip">
				<name>recParticip</name>
				<interior color="e5f6f7" />
				<outline color="000080" />
				<font color="000000" name="Arial" size="8" />
				<position>813 476 877 516</position>
				<barchart active="true" />
			</node>
			<node id="PS">
				<name>PS</name>
				<interior color="e5f6f7" />
				<outline color="000080" />
				<font color="000000" name="Arial" size="8" />
				<position>617 204 653 226</position>
				<barchart active="true" />
			</node>
			<node id="ground">
				<name>ground</name>
				<interior color="e5f6f7" />
				<outline color="000080" />
				<font color="000000" name="Arial" size="8" />
				<position>636 275 687 306</position>
				<barchart active="true" width="137" height="64" />
			</node>
			<node id="inverts">
				<name>inverts</name>
				<interior color="e5f6f7" />
				<outline color="000080" />
				<font color="000000" name="Arial" size="8" />
				<position>640 365 689 395</position>
				<barchart active="true" width="139" height="64" />
			</node>
			<node id="forage">
				<name>forage</name>
				<interior color="e5f6f7" />
				<outline color="000080" />
				<font color="000000" name="Arial" size="8" />
				<position>654 463 703 493</position>
				<barchart active="true" width="138" height="64" />
			</node>
			<node id="GZ">
				<name>GZ</name>
				<interior color="e5f6f7" />
				<outline color="000080" />
				<font color="000000" name="Arial" size="8" />
				<position>476 213 513 236</position>
				<barchart active="true" />
			</node>
			<node id="copepod">
				<name>copepod</name>
				<interior color="e5f6f7" />
				<outline color="000080" />
				<font color="000000" name="Arial" size="8" />
				<position>492 285 549 320</position>
				<barchart active="true" />
			</node>
			<node id="benthos">
				<name>benthos</name>
				<interior color="e5f6f7" />
				<outline color="000080" />
				<font color="000000" name="Arial" size="8" />
				<position>487 375 541 408</position>
				<barchart active="true" />
			</node>
			<node id="gfMAB">
				<name>gfMAB</name>
				<interior color="e5f6f7" />
				<outline color="000080" />
				<font color="000000" name="Arial" size="8" />
				<position>498 466 547 496</position>
				<barchart active="true" />
			</node>
			<node id="PP">
				<name>PP</name>
				<interior color="e5f6f7" />
				<outline color="000080" />
				<font color="000000" name="Arial" size="8" />
				<position>342 287 378 309</position>
				<barchart active="true" width="128" height="64" />
			</node>
			<node id="detBac">
				<name>detBac</name>
				<interior color="e5f6f7" />
				<outline color="000080" />
				<font color="000000" name="Arial" size="8" />
				<position>341 418 392 449</position>
				<barchart active="true" width="128" height="64" />
			</node>
			<node id="habPel">
				<name>habPel</name>
				<interior color="e5f6f7" />
				<outline color="000080" />
				<font color="000000" name="Arial" size="8" />
				<position>523 600 572 630</position>
				<barchart active="true" />
			</node>
			<node id="habNear">
				<name>habNear</name>
				<interior color="e5f6f7" />
				<outline color="000080" />
				<font color="000000" name="Arial" size="8" />
				<position>655 608 711 643</position>
				<barchart active="true" />
			</node>
			<node id="habDem">
				<name>habDem</name>
				<interior color="e5f6f7" />
				<outline color="000080" />
				<font color="000000" name="Arial" size="8" />
				<position>803 601 857 634</position>
				<barchart active="true" width="128" height="64" />
			</node>
			<node id="tides">
				<name>tides</name>
				<interior color="e5f6f7" />
				<outline color="000080" />
				<font color="000000" name="Arial" size="8" />
				<position>438 691 480 717</position>
				<barchart active="true" width="128" height="72" />
			</node>
			<node id="strat">
				<name>strat</name>
				<interior color="e5f6f7" />
				<outline color="000080" />
				<font color="000000" name="Arial" size="8" />
				<position>590 695 632 721</position>
				<barchart active="true" />
			</node>
			<node id="SSS">
				<name>SSS</name>
				<interior color="e5f6f7" />
				<outline color="000080" />
				<font color="000000" name="Arial" size="8" />
				<position>451 807 492 832</position>
				<barchart active="true" width="128" height="64" />
			</node>
			<node id="SST">
				<name>SST</name>
				<interior color="e5f6f7" />
				<outline color="000080" />
				<font color="000000" name="Arial" size="8" />
				<position>597 807 638 832</position>
				<barchart active="true" width="128" height="64" />
			</node>
			<node id="BT">
				<name>BT</name>
				<interior color="e5f6f7" />
				<outline color="000080" />
				<font color="000000" name="Arial" size="8" />
				<position>738 805 774 827</position>
				<barchart active="true" width="128" height="64" />
			</node>
			<node id="BS">
				<name>BS</name>
				<interior color="e5f6f7" />
				<outline color="000080" />
				<font color="000000" name="Arial" size="8" />
				<position>886 802 923 825</position>
				<barchart active="true" width="128" height="64" />
			</node>
			<node id="precip">
				<name>precip</name>
				<interior color="e5f6f7" />
				<outline color="000080" />
				<font color="000000" name="Arial" size="8" />
				<position>824 702 872 732</position>
				<barchart active="true" />
			</node>
			<node id="AT">
				<name>AT</name>
				<interior color="e5f6f7" />
				<outline color="000080" />
				<font color="000000" name="Arial" size="8" />
				<position>490 907 527 930</position>
				<barchart active="true" width="128" height="64" />
			</node>
			<node id="pctLSW">
				<name>pctLSW</name>
				<interior color="e5f6f7" />
				<outline color="000080" />
				<font color="000000" name="Arial" size="8" />
				<position>628 899 682 932</position>
				<barchart active="true" />
			</node>
			<node id="winds">
				<name>winds</name>
				<interior color="e5f6f7" />
				<outline color="000080" />
				<font color="000000" name="Arial" size="8" />
				<position>795 903 843 933</position>
				<barchart active="true" width="128" height="64" />
			</node>
		</genie>
	</extensions>
</smile>
